FANN_FLO_2.1
num_layers=3
learning_rate=0.700000
connection_rate=1.000000
network_type=0
learning_momentum=0.000000
training_algorithm=2
train_error_function=1
train_stop_function=0
cascade_output_change_fraction=0.010000
quickprop_decay=-0.000100
quickprop_mu=1.750000
rprop_increase_factor=1.200000
rprop_decrease_factor=0.500000
rprop_delta_min=0.000000
rprop_delta_max=50.000000
rprop_delta_zero=0.100000
cascade_output_stagnation_epochs=12
cascade_candidate_change_fraction=0.010000
cascade_candidate_stagnation_epochs=12
cascade_max_out_epochs=150
cascade_min_out_epochs=50
cascade_max_cand_epochs=150
cascade_min_cand_epochs=50
cascade_num_candidate_groups=2
bit_fail_limit=3.49999994039535522461e-01
cascade_candidate_limit=1.00000000000000000000e+03
cascade_weight_multiplier=4.00000005960464477539e-01
cascade_activation_functions_count=10
cascade_activation_functions=3 5 7 8 10 11 14 15 16 17 
cascade_activation_steepnesses_count=4
cascade_activation_steepnesses=2.50000000000000000000e-01 5.00000000000000000000e-01 7.50000000000000000000e-01 1.00000000000000000000e+00 
layer_sizes=4 4 4 
scale_included=0
neurons (num_inputs, activation_function, activation_steepness)=(0, 0, 0.00000000000000000000e+00) (0, 0, 0.00000000000000000000e+00) (0, 0, 0.00000000000000000000e+00) (0, 0, 0.00000000000000000000e+00) (4, 4, 5.00000000000000000000e-01) (4, 4, 5.00000000000000000000e-01) (4, 4, 5.00000000000000000000e-01) (0, 0, 0.00000000000000000000e+00) (4, 4, 5.00000000000000000000e-01) (4, 4, 5.00000000000000000000e-01) (4, 4, 5.00000000000000000000e-01) (0, 0, 0.00000000000000000000e+00) 
connections (connected_to_neuron, weight)=(0, 5.23737382888793945312e+00) (1, -4.93937641382217407227e-01) (2, 5.06883859634399414062e+00) (3, -4.97332334518432617188e+00) (0, -4.65212440490722656250e+00) (1, 5.33520088195800781250e+01) (2, 1.07425606250762939453e+00) (3, -1.38224923610687255859e+00) (0, 6.11551284790039062500e+00) (1, 3.32939839363098144531e+00) (2, -4.64129495620727539062e+00) (3, -3.36763191223144531250e+00) (4, 4.67914962768554687500e+00) (5, -9.10835456848144531250e+00) (6, 1.47053413391113281250e+01) (7, -2.29065299034118652344e+00) (4, -9.02295768260955810547e-01) (5, 1.15176296234130859375e+01) (6, 2.54627728462219238281e+00) (7, -7.08789062500000000000e+00) (4, 1.15407466888427734375e+01) (5, 2.89430975914001464844e+00) (6, -9.35753822326660156250e+00) (7, -3.11130547523498535156e+00) 
