FANN_FLO_2.1
num_layers=3
learning_rate=0.700000
connection_rate=1.000000
network_type=0
learning_momentum=0.000000
training_algorithm=2
train_error_function=1
train_stop_function=0
cascade_output_change_fraction=0.010000
quickprop_decay=-0.000100
quickprop_mu=1.750000
rprop_increase_factor=1.200000
rprop_decrease_factor=0.500000
rprop_delta_min=0.000000
rprop_delta_max=50.000000
rprop_delta_zero=0.100000
cascade_output_stagnation_epochs=12
cascade_candidate_change_fraction=0.010000
cascade_candidate_stagnation_epochs=12
cascade_max_out_epochs=150
cascade_min_out_epochs=50
cascade_max_cand_epochs=150
cascade_min_cand_epochs=50
cascade_num_candidate_groups=2
bit_fail_limit=3.49999994039535522461e-01
cascade_candidate_limit=1.00000000000000000000e+03
cascade_weight_multiplier=4.00000005960464477539e-01
cascade_activation_functions_count=10
cascade_activation_functions=3 5 7 8 10 11 14 15 16 17 
cascade_activation_steepnesses_count=4
cascade_activation_steepnesses=2.50000000000000000000e-01 5.00000000000000000000e-01 7.50000000000000000000e-01 1.00000000000000000000e+00 
layer_sizes=4 4 4 
scale_included=0
neurons (num_inputs, activation_function, activation_steepness)=(0, 0, 0.00000000000000000000e+00) (0, 0, 0.00000000000000000000e+00) (0, 0, 0.00000000000000000000e+00) (0, 0, 0.00000000000000000000e+00) (4, 4, 5.00000000000000000000e-01) (4, 4, 5.00000000000000000000e-01) (4, 4, 5.00000000000000000000e-01) (0, 0, 0.00000000000000000000e+00) (4, 4, 5.00000000000000000000e-01) (4, 4, 5.00000000000000000000e-01) (4, 4, 5.00000000000000000000e-01) (0, 0, 0.00000000000000000000e+00) 
connections (connected_to_neuron, weight)=(0, 1.45912885665893554688e+00) (1, 1.99439674615859985352e-01) (2, 7.02513122558593750000e+00) (3, -3.01951074600219726562e+00) (0, -1.93492138385772705078e+00) (1, -3.51817054748535156250e+01) (2, -3.02692472934722900391e-01) (3, 1.05538439750671386719e+00) (0, -2.65386199951171875000e+01) (1, 2.93703818321228027344e+00) (2, -7.95497775077819824219e-01) (3, 6.18217051029205322266e-01) (4, 6.07750225067138671875e+00) (5, 4.11727809906005859375e+00) (6, -1.71552085876464843750e+01) (7, 3.48801994323730468750e+00) (4, 3.58572793006896972656e+00) (5, -2.20760726928710937500e+01) (6, 3.29264187812805175781e+00) (7, 2.11096096038818359375e+00) (4, 1.38174734115600585938e+01) (5, -1.19239139556884765625e+00) (6, -3.48166346549987792969e-01) (7, -7.80017089843750000000e+00) 
