FANN_FLO_2.1
num_layers=3
learning_rate=0.700000
connection_rate=1.000000
network_type=0
learning_momentum=0.000000
training_algorithm=3
train_error_function=1
train_stop_function=0
cascade_output_change_fraction=0.010000
quickprop_decay=-0.000100
quickprop_mu=1.750000
rprop_increase_factor=1.200000
rprop_decrease_factor=0.500000
rprop_delta_min=0.000000
rprop_delta_max=50.000000
rprop_delta_zero=0.100000
cascade_output_stagnation_epochs=12
cascade_candidate_change_fraction=0.010000
cascade_candidate_stagnation_epochs=12
cascade_max_out_epochs=150
cascade_max_cand_epochs=150
cascade_num_candidate_groups=2
bit_fail_limit=3.49999994039535522461e-01
cascade_candidate_limit=1.00000000000000000000e+03
cascade_weight_multiplier=4.00000005960464477539e-01
cascade_activation_functions_count=10
cascade_activation_functions=3 5 7 8 10 11 14 15 16 17 
cascade_activation_steepnesses_count=4
cascade_activation_steepnesses=2.50000000000000000000e-01 5.00000000000000000000e-01 7.50000000000000000000e-01 1.00000000000000000000e+00 
layer_sizes=3 4 4 
scale_included=0
neurons (num_inputs, activation_function, activation_steepness)=(0, 0, 0.00000000000000000000e+00) (0, 0, 0.00000000000000000000e+00) (0, 0, 0.00000000000000000000e+00) (3, 5, 5.00000000000000000000e-01) (3, 5, 5.00000000000000000000e-01) (3, 5, 5.00000000000000000000e-01) (0, 5, 0.00000000000000000000e+00) (4, 5, 5.00000000000000000000e-01) (4, 5, 5.00000000000000000000e-01) (4, 5, 5.00000000000000000000e-01) (0, 5, 0.00000000000000000000e+00) 
connections (connected_to_neuron, weight)=(0, 4.61276471614837646484e-02) (1, 5.73550816625356674194e-03) (2, 1.75611913204193115234e+00) (0, -2.69912242889404296875e+00) (1, -2.58784794807434082031e+00) (2, 2.77385449409484863281e+00) (0, -3.69289398193359375000e+00) (1, -3.68898248672485351562e+00) (2, -3.21044468879699707031e+00) (3, -6.08937680721282958984e-01) (4, 2.56544351577758789062e+00) (5, -2.51435375213623046875e+00) (6, -1.83484971523284912109e+00) (3, 5.10458648204803466797e-01) (4, -2.71908998489379882812e+00) (5, 2.45484066009521484375e+00) (6, 1.90091335773468017578e+00) (3, 1.79915308952331542969e+00) (4, 1.54241457581520080566e-01) (5, -3.49407881498336791992e-01) (6, 4.80572700500488281250e+00) 
