FANN_FLO_2.1
num_layers=3
learning_rate=0.700000
connection_rate=1.000000
network_type=0
learning_momentum=0.000000
training_algorithm=3
train_error_function=1
train_stop_function=0
cascade_output_change_fraction=0.010000
quickprop_decay=-0.000100
quickprop_mu=1.750000
rprop_increase_factor=1.200000
rprop_decrease_factor=0.500000
rprop_delta_min=0.000000
rprop_delta_max=50.000000
rprop_delta_zero=0.100000
cascade_output_stagnation_epochs=12
cascade_candidate_change_fraction=0.010000
cascade_candidate_stagnation_epochs=12
cascade_max_out_epochs=150
cascade_max_cand_epochs=150
cascade_num_candidate_groups=2
bit_fail_limit=3.49999994039535522461e-01
cascade_candidate_limit=1.00000000000000000000e+03
cascade_weight_multiplier=4.00000005960464477539e-01
cascade_activation_functions_count=10
cascade_activation_functions=3 5 7 8 10 11 14 15 16 17 
cascade_activation_steepnesses_count=4
cascade_activation_steepnesses=2.50000000000000000000e-01 5.00000000000000000000e-01 7.50000000000000000000e-01 1.00000000000000000000e+00 
layer_sizes=3 4 4 
scale_included=0
neurons (num_inputs, activation_function, activation_steepness)=(0, 0, 0.00000000000000000000e+00) (0, 0, 0.00000000000000000000e+00) (0, 0, 0.00000000000000000000e+00) (3, 5, 5.00000000000000000000e-01) (3, 5, 5.00000000000000000000e-01) (3, 5, 5.00000000000000000000e-01) (0, 5, 0.00000000000000000000e+00) (4, 5, 5.00000000000000000000e-01) (4, 5, 5.00000000000000000000e-01) (4, 5, 5.00000000000000000000e-01) (0, 5, 0.00000000000000000000e+00) 
connections (connected_to_neuron, weight)=(0, 3.35641098022460937500e+00) (1, -3.59203219413757324219e+00) (2, -3.28625607490539550781e+00) (0, -2.97084498405456542969e+00) (1, 1.83336925506591796875e+00) (2, -1.83352458477020263672e+00) (0, 1.70137301087379455566e-01) (1, -1.00025558471679687500e+00) (2, -6.62443757057189941406e-01) (3, 4.39332771301269531250e+00) (4, 2.79862689971923828125e+00) (5, -2.54790210723876953125e+00) (6, 2.03658723831176757812e+00) (3, -4.69831037521362304688e+00) (4, -3.11839151382446289062e+00) (5, 1.93558359146118164062e+00) (6, -2.47800779342651367188e+00) (3, -2.37031280994415283203e-01) (4, -4.03698503971099853516e-01) (5, -7.73126065731048583984e-01) (6, 5.88781404495239257812e+00) 
