FANN_FLO_2.1
num_layers=3
learning_rate=0.700000
connection_rate=1.000000
network_type=0
learning_momentum=0.000000
training_algorithm=3
train_error_function=1
train_stop_function=0
cascade_output_change_fraction=0.010000
quickprop_decay=-0.000100
quickprop_mu=1.750000
rprop_increase_factor=1.200000
rprop_decrease_factor=0.500000
rprop_delta_min=0.000000
rprop_delta_max=50.000000
rprop_delta_zero=0.100000
cascade_output_stagnation_epochs=12
cascade_candidate_change_fraction=0.010000
cascade_candidate_stagnation_epochs=12
cascade_max_out_epochs=150
cascade_max_cand_epochs=150
cascade_num_candidate_groups=2
bit_fail_limit=3.49999994039535522461e-01
cascade_candidate_limit=1.00000000000000000000e+03
cascade_weight_multiplier=4.00000005960464477539e-01
cascade_activation_functions_count=10
cascade_activation_functions=3 5 7 8 10 11 14 15 16 17 
cascade_activation_steepnesses_count=4
cascade_activation_steepnesses=2.50000000000000000000e-01 5.00000000000000000000e-01 7.50000000000000000000e-01 1.00000000000000000000e+00 
layer_sizes=3 5 4 
scale_included=0
neurons (num_inputs, activation_function, activation_steepness)=(0, 0, 0.00000000000000000000e+00) (0, 0, 0.00000000000000000000e+00) (0, 0, 0.00000000000000000000e+00) (3, 5, 5.00000000000000000000e-01) (3, 5, 5.00000000000000000000e-01) (3, 5, 5.00000000000000000000e-01) (3, 5, 5.00000000000000000000e-01) (0, 5, 0.00000000000000000000e+00) (5, 5, 5.00000000000000000000e-01) (5, 5, 5.00000000000000000000e-01) (5, 5, 5.00000000000000000000e-01) (0, 5, 0.00000000000000000000e+00) 
connections (connected_to_neuron, weight)=(0, -3.45769953727722167969e+00) (1, 3.32470607757568359375e+00) (2, -3.16868400573730468750e+00) (0, 1.76216810941696166992e-01) (1, -1.12946704030036926270e-01) (2, 2.74804562330245971680e-01) (0, 1.88022315502166748047e+00) (1, -1.73820424079895019531e+00) (2, -1.15295016765594482422e+00) (0, 7.00382471084594726562e-01) (1, -8.91973435878753662109e-01) (2, 1.80270656943321228027e-01) (3, 3.80136990547180175781e+00) (4, 1.50393530726432800293e-01) (5, 2.28982925415039062500e+00) (6, 1.98477327823638916016e+00) (7, 2.12007093429565429688e+00) (3, -3.90921640396118164062e+00) (4, -4.83836144208908081055e-01) (5, -3.05859327316284179688e+00) (6, -1.17754459381103515625e+00) (7, -2.45173072814941406250e+00) (3, -4.62831825017929077148e-01) (4, -2.31946185231208801270e-02) (5, -6.15931928157806396484e-01) (6, 3.69342327117919921875e-01) (7, 5.41890382766723632812e+00) 
