FANN_FLO_2.1
num_layers=3
learning_rate=0.700000
connection_rate=1.000000
network_type=0
learning_momentum=0.000000
training_algorithm=3
train_error_function=1
train_stop_function=0
cascade_output_change_fraction=0.010000
quickprop_decay=-0.000100
quickprop_mu=1.750000
rprop_increase_factor=1.200000
rprop_decrease_factor=0.500000
rprop_delta_min=0.000000
rprop_delta_max=50.000000
rprop_delta_zero=0.100000
cascade_output_stagnation_epochs=12
cascade_candidate_change_fraction=0.010000
cascade_candidate_stagnation_epochs=12
cascade_max_out_epochs=150
cascade_min_out_epochs=50
cascade_max_cand_epochs=150
cascade_min_cand_epochs=50
cascade_num_candidate_groups=2
bit_fail_limit=3.49999994039535522461e-01
cascade_candidate_limit=1.00000000000000000000e+03
cascade_weight_multiplier=4.00000005960464477539e-01
cascade_activation_functions_count=10
cascade_activation_functions=3 5 7 8 10 11 14 15 16 17 
cascade_activation_steepnesses_count=4
cascade_activation_steepnesses=2.50000000000000000000e-01 5.00000000000000000000e-01 7.50000000000000000000e-01 1.00000000000000000000e+00 
layer_sizes=3 5 3 
scale_included=0
neurons (num_inputs, activation_function, activation_steepness)=(0, 0, 0.00000000000000000000e+00) (0, 0, 0.00000000000000000000e+00) (0, 0, 0.00000000000000000000e+00) (3, 5, 5.00000000000000000000e-01) (3, 5, 5.00000000000000000000e-01) (3, 5, 5.00000000000000000000e-01) (3, 5, 5.00000000000000000000e-01) (0, 5, 0.00000000000000000000e+00) (5, 5, 5.00000000000000000000e-01) (5, 5, 5.00000000000000000000e-01) (0, 5, 0.00000000000000000000e+00) 
connections (connected_to_neuron, weight)=(0, 9.16906222701072692871e-02) (1, 4.42555621266365051270e-02) (2, 3.16178798675537109375e-03) (0, -5.98159767687320709229e-02) (1, 7.28740766644477844238e-02) (2, -5.56276738643646240234e-03) (0, -9.33493301272392272949e-02) (1, 7.78023526072502136230e-02) (2, 2.39694863557815551758e-02) (0, 5.50751909613609313965e-02) (1, 4.87576201558113098145e-02) (2, 6.92370310425758361816e-02) (3, 6.68118074536323547363e-02) (4, -9.41230058670043945312e-02) (5, 7.47155621647834777832e-02) (6, -5.53747154772281646729e-02) (7, -8.28223302960395812988e-02) (3, 5.13398647308349609375e-03) (4, 8.68144258856773376465e-02) (5, 9.01074185967445373535e-02) (6, 3.52637544274330139160e-02) (7, 7.78794512152671813965e-02) 
