FANN_FLO_2.1
num_layers=3
learning_rate=0.700000
connection_rate=1.000000
network_type=0
learning_momentum=0.000000
training_algorithm=3
train_error_function=1
train_stop_function=0
cascade_output_change_fraction=0.010000
quickprop_decay=-0.000100
quickprop_mu=1.750000
rprop_increase_factor=1.200000
rprop_decrease_factor=0.500000
rprop_delta_min=0.000000
rprop_delta_max=50.000000
rprop_delta_zero=0.100000
cascade_output_stagnation_epochs=12
cascade_candidate_change_fraction=0.010000
cascade_candidate_stagnation_epochs=12
cascade_max_out_epochs=150
cascade_min_out_epochs=50
cascade_max_cand_epochs=150
cascade_min_cand_epochs=50
cascade_num_candidate_groups=2
bit_fail_limit=3.49999994039535522461e-01
cascade_candidate_limit=1.00000000000000000000e+03
cascade_weight_multiplier=4.00000005960464477539e-01
cascade_activation_functions_count=10
cascade_activation_functions=3 5 7 8 10 11 14 15 16 17 
cascade_activation_steepnesses_count=4
cascade_activation_steepnesses=2.50000000000000000000e-01 5.00000000000000000000e-01 7.50000000000000000000e-01 1.00000000000000000000e+00 
layer_sizes=27 4 27 
scale_included=0
neurons (num_inputs, activation_function, activation_steepness)=(0, 0, 0.00000000000000000000e+00) (0, 0, 0.00000000000000000000e+00) (0, 0, 0.00000000000000000000e+00) (0, 0, 0.00000000000000000000e+00) (0, 0, 0.00000000000000000000e+00) (0, 0, 0.00000000000000000000e+00) (0, 0, 0.00000000000000000000e+00) (0, 0, 0.00000000000000000000e+00) (0, 0, 0.00000000000000000000e+00) (0, 0, 0.00000000000000000000e+00) (0, 0, 0.00000000000000000000e+00) (0, 0, 0.00000000000000000000e+00) (0, 0, 0.00000000000000000000e+00) (0, 0, 0.00000000000000000000e+00) (0, 0, 0.00000000000000000000e+00) (0, 0, 0.00000000000000000000e+00) (0, 0, 0.00000000000000000000e+00) (0, 0, 0.00000000000000000000e+00) (0, 0, 0.00000000000000000000e+00) (0, 0, 0.00000000000000000000e+00) (0, 0, 0.00000000000000000000e+00) (0, 0, 0.00000000000000000000e+00) (0, 0, 0.00000000000000000000e+00) (0, 0, 0.00000000000000000000e+00) (0, 0, 0.00000000000000000000e+00) (0, 0, 0.00000000000000000000e+00) (0, 0, 0.00000000000000000000e+00) (27, 5, 5.00000000000000000000e-01) (27, 5, 5.00000000000000000000e-01) (27, 5, 5.00000000000000000000e-01) (0, 5, 0.00000000000000000000e+00) (4, 3, 5.00000000000000000000e-01) (4, 3, 5.00000000000000000000e-01) (4, 3, 5.00000000000000000000e-01) (4, 3, 5.00000000000000000000e-01) (4, 3, 5.00000000000000000000e-01) (4, 3, 5.00000000000000000000e-01) (4, 3, 5.00000000000000000000e-01) (4, 3, 5.00000000000000000000e-01) (4, 3, 5.00000000000000000000e-01) (4, 3, 5.00000000000000000000e-01) (4, 3, 5.00000000000000000000e-01) (4, 3, 5.00000000000000000000e-01) (4, 3, 5.00000000000000000000e-01) (4, 3, 5.00000000000000000000e-01) (4, 3, 5.00000000000000000000e-01) (4, 3, 5.00000000000000000000e-01) (4, 3, 5.00000000000000000000e-01) (4, 3, 5.00000000000000000000e-01) (4, 3, 5.00000000000000000000e-01) (4, 3, 5.00000000000000000000e-01) (4, 3, 5.00000000000000000000e-01) (4, 3, 5.00000000000000000000e-01) (4, 3, 5.00000000000000000000e-01) (4, 3, 5.00000000000000000000e-01) (4, 3, 5.00000000000000000000e-01) (4, 3, 5.00000000000000000000e-01) (0, 3, 0.00000000000000000000e+00) 
connections (connected_to_neuron, weight)=(0, -5.74379324913024902344e-01) (1, -1.78727340698242187500e+00) (2, -1.56696692109107971191e-01) (3, 4.70860674977302551270e-02) (4, 3.39337177574634552002e-02) (5, 4.10897172987461090088e-02) (6, -6.71537220478057861328e-03) (7, 5.29798716306686401367e-02) (8, 2.04329416155815124512e-01) (9, 1.50173917412757873535e-01) (10, -7.30346236377954483032e-03) (11, 3.01396637223660945892e-03) (12, 1.08166532590985298157e-02) (13, 2.86318268626928329468e-02) (14, -9.84025299549102783203e-02) (15, 9.81685966253280639648e-02) (16, 7.43304729461669921875e-01) (17, 2.00865149497985839844e+00) (18, -3.27691584825515747070e-01) (19, -2.37317979335784912109e-01) (20, 1.13823898136615753174e-01) (21, -3.60921062529087066650e-02) (22, 1.01740039885044097900e-01) (23, 8.39716717600822448730e-02) (24, 2.59575564414262771606e-02) (25, 1.33259743452072143555e-01) (26, 1.29399344325065612793e-01) (0, -4.18286132812500000000e+00) (1, -1.89654290676116943359e+00) (2, -3.10850501060485839844e-01) (3, -5.40229007601737976074e-02) (4, -6.21882528066635131836e-02) (5, -7.58950114250183105469e-02) (6, 9.24563705921173095703e-02) (7, -4.15088124573230743408e-02) (8, 5.07599264383316040039e-02) (9, -2.71367728710174560547e-02) (10, 2.20168605446815490723e-02) (11, 8.41172710061073303223e-02) (12, -7.35383555293083190918e-02) (13, -8.30970928072929382324e-02) (14, -4.52316179871559143066e-02) (15, 1.78288575261831283569e-02) (16, 9.76403355598449707031e-02) (17, 1.68666589260101318359e+00) (18, 6.80195748805999755859e-01) (19, 7.08003640174865722656e-02) (20, 1.52538418769836425781e-02) (21, 2.04803999513387680054e-02) (22, 5.95486909151077270508e-02) (23, 4.72569838166236877441e-03) (24, 8.12086388468742370605e-02) (25, -6.40850663185119628906e-02) (26, -1.85714792460203170776e-02) (0, 4.29943144321441650391e-01) (1, 4.99459743499755859375e+00) (2, 3.09153974056243896484e-01) (3, 8.73208522796630859375e-01) (4, 5.72718560695648193359e-01) (5, 1.11521160602569580078e+00) (6, 4.73492503166198730469e-01) (7, 2.88215696811676025391e-01) (8, 1.76997709274291992188e+00) (9, 1.61812734603881835938e+00) (10, -8.04085806012153625488e-02) (11, 7.75470510125160217285e-02) (12, 4.85755205154418945312e-02) (13, -4.53131124377250671387e-02) (14, -9.87930595874786376953e-03) (15, 1.14774572849273681641e+00) (16, 3.42001855373382568359e-01) (17, 5.39180576801300048828e-01) (18, -4.81763631105422973633e-02) (19, 2.95802325010299682617e-01) (20, 3.40072691440582275391e-01) (21, 3.23915421962738037109e-01) (22, 9.20089900493621826172e-01) (23, 8.47281277179718017578e-01) (24, 6.82073712348937988281e-01) (25, 1.61469769477844238281e+00) (26, 1.79407691955566406250e+00) (27, 2.28435888886451721191e-01) (28, -2.40584999322891235352e-01) (29, 1.98562586307525634766e+00) (30, 5.49086380004882812500e+00) (27, -2.23952937126159667969e+00) (28, -4.82414150238037109375e+00) (29, 2.46839560568332672119e-02) (30, 2.08521336317062377930e-02) (27, -3.95962524414062500000e+00) (28, -3.04193705320358276367e-01) (29, -1.69216305017471313477e-01) (30, -1.02092075347900390625e+00) (27, -2.19224834442138671875e+00) (28, -2.91128396987915039062e-01) (29, -3.76944929361343383789e-01) (30, -1.52695155143737792969e+00) (27, -1.87566530704498291016e+00) (28, -6.21813945472240447998e-02) (29, -3.63437533378601074219e-01) (30, -1.94610857963562011719e+00) (27, -1.60873150825500488281e+00) (28, -6.63810446858406066895e-02) (29, -3.74015301465988159180e-01) (30, -2.43307614326477050781e+00) (27, -1.50216591358184814453e+00) (28, 5.70707060396671295166e-02) (29, -6.71388149261474609375e-01) (30, -2.75639986991882324219e+00) (27, -1.63232016563415527344e+00) (28, 1.66507616639137268066e-01) (29, -7.79177784919738769531e-01) (30, -3.50069761276245117188e+00) (27, -3.89462888240814208984e-01) (28, 3.77741098403930664062e-01) (29, -1.78727841377258300781e+00) (30, -5.69611644744873046875e+00) (27, -2.88221299648284912109e-01) (28, 2.49838963150978088379e-01) (29, -1.86136817932128906250e+00) (30, -5.65439748764038085938e+00) (27, -8.90000388026237487793e-02) (28, 1.81444570422172546387e-01) (29, -3.48373025655746459961e-01) (30, -1.79572522640228271484e+00) (27, -2.29704603552818298340e-01) (28, 2.90604531764984130859e-01) (29, -1.91128027439117431641e+00) (30, -5.55085897445678710938e+00) (27, -2.35754027962684631348e-01) (28, 1.98619559407234191895e-01) (29, -3.66953492164611816406e-01) (30, -1.85617959499359130859e+00) (27, -2.27246925234794616699e-01) (28, 2.35602363944053649902e-01) (29, -1.83733141422271728516e+00) (30, -5.65260601043701171875e+00) (27, -5.33675253391265869141e-02) (28, 2.19277739524841308594e-01) (29, -4.88463789224624633789e-01) (30, -2.06438422203063964844e+00) (27, 4.95299673080444335938e+00) (28, 5.77937126159667968750e-01) (29, 9.85695719718933105469e-02) (30, 4.39036548137664794922e-01) (27, -3.97152155637741088867e-01) (28, -6.18727922439575195312e-01) (29, -1.81161016225814819336e-01) (30, -1.53708779811859130859e+00) (27, 3.77524614334106445312e-01) (28, -3.74854773283004760742e-01) (29, 1.87903654575347900391e+00) (30, 5.61476421356201171875e+00) (27, 2.24797272682189941406e+00) (28, 4.90055847167968750000e+00) (29, -5.71467168629169464111e-02) (30, 3.94523181021213531494e-02) (27, 9.51099634170532226562e-01) (28, 1.11350929737091064453e+00) (29, -2.70672351121902465820e-01) (30, -9.66443121433258056641e-01) (27, 1.38535633683204650879e-01) (28, 1.28012216091156005859e+00) (29, -2.84556180238723754883e-01) (30, -1.41507256031036376953e+00) (27, 1.43852829933166503906e-01) (28, 1.55509543418884277344e+00) (29, -3.65782976150512695312e-01) (30, -2.01345324516296386719e+00) (27, -7.97439143061637878418e-02) (28, 1.90507698059082031250e+00) (29, -5.26906788349151611328e-01) (30, -2.45533990859985351562e+00) (27, -5.01634627580642700195e-02) (28, 1.23186218738555908203e+00) (29, -7.36318647861480712891e-01) (30, -2.85428285598754882812e+00) (27, -1.00645840167999267578e-01) (28, 5.30704736709594726562e-01) (29, -8.76644134521484375000e-01) (30, -3.52603244781494140625e+00) (27, -3.06302398443222045898e-01) (28, 2.70032167434692382812e-01) (29, -1.90583586692810058594e+00) (30, -5.60130596160888671875e+00) 
