FANN_FLO_2.1
num_layers=3
learning_rate=0.700000
connection_rate=1.000000
network_type=0
learning_momentum=0.000000
training_algorithm=3
train_error_function=1
train_stop_function=0
cascade_output_change_fraction=0.010000
quickprop_decay=-0.000100
quickprop_mu=1.750000
rprop_increase_factor=1.200000
rprop_decrease_factor=0.500000
rprop_delta_min=0.000000
rprop_delta_max=50.000000
rprop_delta_zero=0.100000
cascade_output_stagnation_epochs=12
cascade_candidate_change_fraction=0.010000
cascade_candidate_stagnation_epochs=12
cascade_max_out_epochs=150
cascade_min_out_epochs=50
cascade_max_cand_epochs=150
cascade_min_cand_epochs=50
cascade_num_candidate_groups=2
bit_fail_limit=3.49999994039535522461e-01
cascade_candidate_limit=1.00000000000000000000e+03
cascade_weight_multiplier=4.00000005960464477539e-01
cascade_activation_functions_count=10
cascade_activation_functions=3 5 7 8 10 11 14 15 16 17 
cascade_activation_steepnesses_count=4
cascade_activation_steepnesses=2.50000000000000000000e-01 5.00000000000000000000e-01 7.50000000000000000000e-01 1.00000000000000000000e+00 
layer_sizes=27 4 27 
scale_included=0
neurons (num_inputs, activation_function, activation_steepness)=(0, 0, 0.00000000000000000000e+00) (0, 0, 0.00000000000000000000e+00) (0, 0, 0.00000000000000000000e+00) (0, 0, 0.00000000000000000000e+00) (0, 0, 0.00000000000000000000e+00) (0, 0, 0.00000000000000000000e+00) (0, 0, 0.00000000000000000000e+00) (0, 0, 0.00000000000000000000e+00) (0, 0, 0.00000000000000000000e+00) (0, 0, 0.00000000000000000000e+00) (0, 0, 0.00000000000000000000e+00) (0, 0, 0.00000000000000000000e+00) (0, 0, 0.00000000000000000000e+00) (0, 0, 0.00000000000000000000e+00) (0, 0, 0.00000000000000000000e+00) (0, 0, 0.00000000000000000000e+00) (0, 0, 0.00000000000000000000e+00) (0, 0, 0.00000000000000000000e+00) (0, 0, 0.00000000000000000000e+00) (0, 0, 0.00000000000000000000e+00) (0, 0, 0.00000000000000000000e+00) (0, 0, 0.00000000000000000000e+00) (0, 0, 0.00000000000000000000e+00) (0, 0, 0.00000000000000000000e+00) (0, 0, 0.00000000000000000000e+00) (0, 0, 0.00000000000000000000e+00) (0, 0, 0.00000000000000000000e+00) (27, 5, 5.00000000000000000000e-01) (27, 5, 5.00000000000000000000e-01) (27, 5, 5.00000000000000000000e-01) (0, 5, 0.00000000000000000000e+00) (4, 3, 5.00000000000000000000e-01) (4, 3, 5.00000000000000000000e-01) (4, 3, 5.00000000000000000000e-01) (4, 3, 5.00000000000000000000e-01) (4, 3, 5.00000000000000000000e-01) (4, 3, 5.00000000000000000000e-01) (4, 3, 5.00000000000000000000e-01) (4, 3, 5.00000000000000000000e-01) (4, 3, 5.00000000000000000000e-01) (4, 3, 5.00000000000000000000e-01) (4, 3, 5.00000000000000000000e-01) (4, 3, 5.00000000000000000000e-01) (4, 3, 5.00000000000000000000e-01) (4, 3, 5.00000000000000000000e-01) (4, 3, 5.00000000000000000000e-01) (4, 3, 5.00000000000000000000e-01) (4, 3, 5.00000000000000000000e-01) (4, 3, 5.00000000000000000000e-01) (4, 3, 5.00000000000000000000e-01) (4, 3, 5.00000000000000000000e-01) (4, 3, 5.00000000000000000000e-01) (4, 3, 5.00000000000000000000e-01) (4, 3, 5.00000000000000000000e-01) (4, 3, 5.00000000000000000000e-01) (4, 3, 5.00000000000000000000e-01) (4, 3, 5.00000000000000000000e-01) (0, 3, 0.00000000000000000000e+00) 
connections (connected_to_neuron, weight)=(0, -1.33139535784721374512e-01) (1, -2.42282256484031677246e-01) (2, -2.84653037786483764648e-01) (3, -3.39456021785736083984e-01) (4, -3.84243667125701904297e-01) (5, -7.16709494590759277344e-01) (6, -3.05178344249725341797e-01) (7, -3.43144983053207397461e-01) (8, -1.03100717067718505859e+00) (9, -1.05499100685119628906e+00) (10, -6.78450241684913635254e-02) (11, 5.54567500948905944824e-02) (12, 4.51382622122764587402e-02) (13, -4.94716316461563110352e-02) (14, -7.43920803070068359375e-02) (15, -7.70547270774841308594e-01) (16, -2.06884813308715820312e+00) (17, -8.87003242969512939453e-01) (18, -2.61898070573806762695e-01) (19, 4.15285468101501464844e-01) (20, -3.39490145444869995117e-01) (21, -1.98961094021797180176e-01) (22, -6.83257520198822021484e-01) (23, -4.88580465316772460938e-01) (24, -3.31225544214248657227e-01) (25, -1.05447113513946533203e+00) (26, -1.13866961002349853516e+00) (0, -1.16027307510375976562e+00) (1, -2.24096655845642089844e+00) (2, -2.36086145043373107910e-01) (3, 3.86355072259902954102e-02) (4, -7.42833018302917480469e-02) (5, 5.16153685748577117920e-02) (6, 5.45085817575454711914e-02) (7, -2.62674433179199695587e-03) (8, -3.00258118659257888794e-02) (9, 1.25587180256843566895e-01) (10, 5.45528642833232879639e-02) (11, 4.46858592331409454346e-02) (12, 2.38017886877059936523e-02) (13, 7.02919960021972656250e-02) (14, -9.18514877557754516602e-02) (15, -5.51116988062858581543e-02) (16, 4.51810956001281738281e-01) (17, 8.14072513580322265625e+00) (18, -1.19386756420135498047e+00) (19, -2.15621724724769592285e-01) (20, 2.15402200818061828613e-01) (21, -8.29984340816736221313e-03) (22, 6.88076838850975036621e-02) (23, 1.28188170492649078369e-03) (24, -6.57270178198814392090e-02) (25, 1.05002015829086303711e-01) (26, 1.28259629011154174805e-01) (0, -4.07448005676269531250e+00) (1, -3.84911155700683593750e+00) (2, -3.04856002330780029297e-01) (3, -4.10576075315475463867e-01) (4, -1.84445217251777648926e-01) (5, -3.28957706689834594727e-01) (6, -1.84207931160926818848e-01) (7, -1.79143920540809631348e-01) (8, -6.07482731342315673828e-01) (9, -6.60220026969909667969e-01) (10, -8.64537358283996582031e-02) (11, 2.03148107975721359253e-02) (12, 1.30270263180136680603e-02) (13, -2.13987436145544052124e-02) (14, -5.15199266374111175537e-02) (15, -3.65248739719390869141e-01) (16, -1.59074783325195312500e-01) (17, -7.28924274444580078125e-02) (18, -1.99489593505859375000e-01) (19, 4.42662119865417480469e-01) (20, -2.32778161764144897461e-01) (21, -3.27045142650604248047e-01) (22, -4.50953125953674316406e-01) (23, -2.87404954433441162109e-01) (24, -4.06555593013763427734e-01) (25, -6.96122050285339355469e-01) (26, -6.90383732318878173828e-01) (27, -1.67682707309722900391e+00) (28, 3.12792748212814331055e-01) (29, -1.72874188423156738281e+00) (30, 4.46046733856201171875e+00) (27, 2.15965546667575836182e-02) (28, -6.52212095260620117188e+00) (29, -2.46741771697998046875e-01) (30, 1.42386093735694885254e-01) (27, 1.33698627352714538574e-01) (28, -1.65732312202453613281e+00) (29, 3.03312204778194427490e-02) (30, -8.95909786224365234375e-01) (27, 3.35733920335769653320e-01) (28, -1.40603029727935791016e+00) (29, 2.61863470077514648438e-01) (30, -1.14213907718658447266e+00) (27, 4.08833056688308715820e-01) (28, -1.17359936237335205078e+00) (29, 2.16730102896690368652e-01) (30, -1.67401015758514404297e+00) (27, 5.48459589481353759766e-01) (28, -1.17819237709045410156e+00) (29, 3.54364395141601562500e-01) (30, -2.07089853286743164062e+00) (27, 7.23213911056518554688e-01) (28, -1.33116090297698974609e+00) (29, 5.39626479148864746094e-01) (30, -2.66616821289062500000e+00) (27, 7.69088029861450195312e-01) (28, -3.22655558586120605469e-01) (29, 8.29867124557495117188e-01) (30, -2.82990837097167968750e+00) (27, 1.74578440189361572266e+00) (28, -2.50723630189895629883e-01) (29, 1.74092340469360351562e+00) (30, -4.31791591644287109375e+00) (27, 1.59241342544555664062e+00) (28, -2.94149249792098999023e-01) (29, 1.56752657890319824219e+00) (30, -4.68241834640502929688e+00) (27, 2.58032977581024169922e-01) (28, 8.53122174739837646484e-02) (29, 2.70927041769027709961e-01) (30, -1.65739095211029052734e+00) (27, 1.78594660758972167969e+00) (28, -3.15950930118560791016e-01) (29, 1.64415049552917480469e+00) (30, -4.43566036224365234375e+00) (27, 3.85800063610076904297e-01) (28, 7.72032216191291809082e-02) (29, 3.07353734970092773438e-01) (30, -1.60357582569122314453e+00) (27, 1.78124570846557617188e+00) (28, -2.49904006719589233398e-01) (29, 1.59788358211517333984e+00) (30, -4.41873168945312500000e+00) (27, 4.84027594327926635742e-01) (28, 1.26826003193855285645e-01) (29, 3.95137369632720947266e-01) (30, -1.71249818801879882812e+00) (27, -1.84234008193016052246e-01) (28, 2.60563683509826660156e+00) (29, -1.60079553723335266113e-01) (30, 5.37183225154876708984e-01) (27, 2.91969269514083862305e-01) (28, -1.05619442462921142578e+00) (29, 2.09274604916572570801e-01) (30, -1.21474766731262207031e+00) (27, -1.62463176250457763672e+00) (28, 2.96397566795349121094e-01) (29, -1.67949008941650390625e+00) (30, 4.53262901306152343750e+00) (27, -4.09224890172481536865e-02) (28, 6.46426725387573242188e+00) (29, 2.29163080453872680664e-01) (30, -1.74698844552040100098e-01) (27, 1.78917244076728820801e-01) (28, 1.47742223739624023438e+00) (29, 3.26787799596786499023e-01) (30, -8.76227200031280517578e-01) (27, 2.67987489700317382812e-01) (28, 1.00081861019134521484e+00) (29, 2.51777708530426025391e-01) (30, -1.39077997207641601562e+00) (27, 3.70565742254257202148e-01) (28, 7.33871579170227050781e-01) (29, 4.15930151939392089844e-01) (30, -1.58797621726989746094e+00) (27, 5.30846774578094482422e-01) (28, 6.55573129653930664062e-01) (29, 4.99017477035522460938e-01) (30, -1.91625738143920898438e+00) (27, 6.13729655742645263672e-01) (28, 6.93257093429565429688e-01) (29, 6.97224915027618408203e-01) (30, -2.32235217094421386719e+00) (27, 9.40257728099822998047e-01) (28, 1.97260349988937377930e-01) (29, 8.18603575229644775391e-01) (30, -2.79738736152648925781e+00) (27, 1.60178542137145996094e+00) (28, -2.08306774497032165527e-01) (29, 1.67317605018615722656e+00) (30, -4.49873352050781250000e+00) 
