FANN_FLO_2.1
num_layers=3
learning_rate=0.700000
connection_rate=1.000000
network_type=0
learning_momentum=0.000000
training_algorithm=3
train_error_function=1
train_stop_function=0
cascade_output_change_fraction=0.010000
quickprop_decay=-0.000100
quickprop_mu=1.750000
rprop_increase_factor=1.200000
rprop_decrease_factor=0.500000
rprop_delta_min=0.000000
rprop_delta_max=50.000000
rprop_delta_zero=0.100000
cascade_output_stagnation_epochs=12
cascade_candidate_change_fraction=0.010000
cascade_candidate_stagnation_epochs=12
cascade_max_out_epochs=150
cascade_min_out_epochs=50
cascade_max_cand_epochs=150
cascade_min_cand_epochs=50
cascade_num_candidate_groups=2
bit_fail_limit=3.49999994039535522461e-01
cascade_candidate_limit=1.00000000000000000000e+03
cascade_weight_multiplier=4.00000005960464477539e-01
cascade_activation_functions_count=10
cascade_activation_functions=3 5 7 8 10 11 14 15 16 17 
cascade_activation_steepnesses_count=4
cascade_activation_steepnesses=2.50000000000000000000e-01 5.00000000000000000000e-01 7.50000000000000000000e-01 1.00000000000000000000e+00 
layer_sizes=27 4 27 
scale_included=0
neurons (num_inputs, activation_function, activation_steepness)=(0, 0, 0.00000000000000000000e+00) (0, 0, 0.00000000000000000000e+00) (0, 0, 0.00000000000000000000e+00) (0, 0, 0.00000000000000000000e+00) (0, 0, 0.00000000000000000000e+00) (0, 0, 0.00000000000000000000e+00) (0, 0, 0.00000000000000000000e+00) (0, 0, 0.00000000000000000000e+00) (0, 0, 0.00000000000000000000e+00) (0, 0, 0.00000000000000000000e+00) (0, 0, 0.00000000000000000000e+00) (0, 0, 0.00000000000000000000e+00) (0, 0, 0.00000000000000000000e+00) (0, 0, 0.00000000000000000000e+00) (0, 0, 0.00000000000000000000e+00) (0, 0, 0.00000000000000000000e+00) (0, 0, 0.00000000000000000000e+00) (0, 0, 0.00000000000000000000e+00) (0, 0, 0.00000000000000000000e+00) (0, 0, 0.00000000000000000000e+00) (0, 0, 0.00000000000000000000e+00) (0, 0, 0.00000000000000000000e+00) (0, 0, 0.00000000000000000000e+00) (0, 0, 0.00000000000000000000e+00) (0, 0, 0.00000000000000000000e+00) (0, 0, 0.00000000000000000000e+00) (0, 0, 0.00000000000000000000e+00) (27, 5, 5.00000000000000000000e-01) (27, 5, 5.00000000000000000000e-01) (27, 5, 5.00000000000000000000e-01) (0, 5, 0.00000000000000000000e+00) (4, 3, 5.00000000000000000000e-01) (4, 3, 5.00000000000000000000e-01) (4, 3, 5.00000000000000000000e-01) (4, 3, 5.00000000000000000000e-01) (4, 3, 5.00000000000000000000e-01) (4, 3, 5.00000000000000000000e-01) (4, 3, 5.00000000000000000000e-01) (4, 3, 5.00000000000000000000e-01) (4, 3, 5.00000000000000000000e-01) (4, 3, 5.00000000000000000000e-01) (4, 3, 5.00000000000000000000e-01) (4, 3, 5.00000000000000000000e-01) (4, 3, 5.00000000000000000000e-01) (4, 3, 5.00000000000000000000e-01) (4, 3, 5.00000000000000000000e-01) (4, 3, 5.00000000000000000000e-01) (4, 3, 5.00000000000000000000e-01) (4, 3, 5.00000000000000000000e-01) (4, 3, 5.00000000000000000000e-01) (4, 3, 5.00000000000000000000e-01) (4, 3, 5.00000000000000000000e-01) (4, 3, 5.00000000000000000000e-01) (4, 3, 5.00000000000000000000e-01) (4, 3, 5.00000000000000000000e-01) (4, 3, 5.00000000000000000000e-01) (4, 3, 5.00000000000000000000e-01) (0, 3, 0.00000000000000000000e+00) 
connections (connected_to_neuron, weight)=(0, -6.77650943398475646973e-02) (1, 7.66581296920776367188e-02) (2, 1.81024238467216491699e-01) (3, 1.63307011127471923828e-01) (4, 2.31013551354408264160e-01) (5, 2.06646382808685302734e-01) (6, 1.70527011156082153320e-01) (7, 2.13173851370811462402e-01) (8, 3.76574903726577758789e-01) (9, 4.56898391246795654297e-01) (10, -1.51106882840394973755e-02) (11, 8.24983697384595870972e-03) (12, 5.84088861942291259766e-02) (13, -2.53448486328125000000e-02) (14, 2.47913971543312072754e-02) (15, 2.17365846037864685059e-01) (16, 7.25069716572761535645e-02) (17, 4.53989744186401367188e+00) (18, -3.47529463469982147217e-02) (19, 1.57572820782661437988e-01) (20, 1.18338949978351593018e-01) (21, 1.10999129712581634521e-01) (22, 1.50979176163673400879e-01) (23, 9.40109342336654663086e-02) (24, 7.03388452529907226562e-02) (25, 4.02707606554031372070e-01) (26, 2.97249794006347656250e-01) (0, -3.36348176002502441406e-01) (1, -2.64521420001983642578e-01) (2, -3.70106339454650878906e-01) (3, -3.28310042619705200195e-01) (4, -3.29882979393005371094e-01) (5, -6.82806432247161865234e-01) (6, -2.86715686321258544922e-01) (7, -3.28056752681732177734e-01) (8, -1.13975608348846435547e+00) (9, -1.20115911960601806641e+00) (10, 3.18567864596843719482e-02) (11, -8.44261720776557922363e-02) (12, 5.89665770530700683594e-03) (13, 3.04661560803651809692e-02) (14, 3.33714410662651062012e-02) (15, -8.12100708484649658203e-01) (16, -8.86648654937744140625e-01) (17, -7.12990045547485351562e-01) (18, -1.71416580677032470703e-01) (19, -2.11574673652648925781e-01) (20, -3.02502781152725219727e-01) (21, -3.03277969360351562500e-01) (22, -5.81983566284179687500e-01) (23, -4.01928275823593139648e-01) (24, -3.44342619180679321289e-01) (25, -1.20165038108825683594e+00) (26, -1.14009809494018554688e+00) (0, -4.12699317932128906250e+00) (1, -9.57001984119415283203e-01) (2, -1.87437951564788818359e-01) (3, 5.05626574158668518066e-02) (4, 2.90031470358371734619e-02) (5, 2.06627137959003448486e-02) (6, 1.26624539494514465332e-01) (7, 1.34286031126976013184e-01) (8, 2.12612785398960113525e-02) (9, 3.61698865890502929688e-02) (10, 1.17858555167913436890e-02) (11, -5.39634786546230316162e-02) (12, 6.21969178318977355957e-02) (13, 3.43303475528955459595e-03) (14, 1.10778898000717163086e-01) (15, -2.93150749057531356812e-02) (16, 5.23374199867248535156e-01) (17, 1.19667398929595947266e+00) (18, 1.04316818714141845703e+00) (19, 1.78782254457473754883e-01) (20, 1.16847984492778778076e-01) (21, 5.08530391380190849304e-03) (22, 3.09076607227325439453e-02) (23, -6.22196607291698455811e-02) (24, -2.34684646129608154297e-02) (25, 1.24797197058796882629e-02) (26, 4.60758544504642486572e-02) (27, 2.87079358100891113281e+00) (28, -1.45414161682128906250e+00) (29, -6.07325851917266845703e-01) (30, 3.40614533424377441406e+00) (27, -4.89254295825958251953e-01) (28, 8.19078460335731506348e-02) (29, -6.31463432312011718750e+00) (30, -1.29816502332687377930e-01) (27, -2.96022355556488037109e-01) (28, 4.05666291713714599609e-01) (29, -1.62911522388458251953e+00) (30, -9.48493838310241699219e-01) (27, -7.32600837945938110352e-02) (28, 3.77702385187149047852e-01) (29, -1.18679213523864746094e+00) (30, -1.60046553611755371094e+00) (27, -2.10830584168434143066e-01) (28, 4.77114617824554443359e-01) (29, -7.27784097194671630859e-01) (30, -1.63222348690032958984e+00) (27, -4.47817772626876831055e-01) (28, 5.65033853054046630859e-01) (29, -6.97395563125610351562e-01) (30, -1.91941606998443603516e+00) (27, -8.75497460365295410156e-01) (28, 7.88969457149505615234e-01) (29, -3.64957153797149658203e-01) (30, -2.02773094177246093750e+00) (27, -1.13832736015319824219e+00) (28, 7.90459573268890380859e-01) (29, -4.06006574630737304688e-01) (30, -2.68782186508178710938e+00) (27, -2.93487262725830078125e+00) (28, 1.51621377468109130859e+00) (29, 6.87829315662384033203e-01) (30, -3.19608664512634277344e+00) (27, -2.81032657623291015625e+00) (28, 1.46161592006683349609e+00) (29, 6.61611378192901611328e-01) (30, -3.39785003662109375000e+00) (27, -2.34795451164245605469e-01) (28, 3.41388553380966186523e-01) (29, 3.08743387460708618164e-01) (30, -1.58819973468780517578e+00) (27, -2.74047517776489257812e+00) (28, 1.50625145435333251953e+00) (29, 7.04354107379913330078e-01) (30, -3.33826327323913574219e+00) (27, -3.04069846868515014648e-01) (28, 4.23464477062225341797e-01) (29, 3.13367158174514770508e-01) (30, -1.54195475578308105469e+00) (27, -2.87678790092468261719e+00) (28, 1.47796869277954101562e+00) (29, 6.87305450439453125000e-01) (30, -3.28644800186157226562e+00) (27, -3.41546654701232910156e-01) (28, 4.35669928789138793945e-01) (29, 2.06765502691268920898e-01) (30, -1.80438137054443359375e+00) (27, 2.72360086441040039062e-01) (28, -3.26076835393905639648e-01) (29, 1.94944000244140625000e+00) (30, 8.52765023708343505859e-01) (27, -1.41896978020668029785e-01) (28, 4.84857589006423950195e-01) (29, -9.17718768119812011719e-01) (30, -1.32957005500793457031e+00) (27, 2.77086210250854492188e+00) (28, -1.58339440822601318359e+00) (29, -6.20533406734466552734e-01) (30, 3.32221555709838867188e+00) (27, 4.02968645095825195312e-01) (28, -8.91203060746192932129e-02) (29, 6.14933967590332031250e+00) (30, 2.09038361907005310059e-01) (27, -9.91141796112060546875e-02) (28, 2.13251277804374694824e-01) (29, 1.86456203460693359375e+00) (30, -7.20839858055114746094e-01) (27, -1.66449815034866333008e-01) (28, 5.11854887008666992188e-01) (29, 2.07282137870788574219e+00) (30, -1.17723798751831054688e+00) (27, -1.94520771503448486328e-01) (28, 5.64296901226043701172e-01) (29, 1.71555554866790771484e+00) (30, -1.53024232387542724609e+00) (27, -5.11251568794250488281e-01) (28, 6.12229168415069580078e-01) (29, 1.35809659957885742188e+00) (30, -1.69329822063446044922e+00) (27, -6.57824456691741943359e-01) (28, 7.37895607948303222656e-01) (29, 1.17718148231506347656e+00) (30, -1.98765707015991210938e+00) (27, -1.17684137821197509766e+00) (28, 8.55265021324157714844e-01) (29, 9.63808178901672363281e-01) (30, -2.42904639244079589844e+00) (27, -2.77727413177490234375e+00) (28, 1.54275345802307128906e+00) (29, 6.57791376113891601562e-01) (30, -3.31844377517700195312e+00) 
